svm_type c_svc
kernel_type rbf
gamma 0.000170474
nr_class 2
total_sv 42
rho -0.808748
label 1 -1
nr_sv 23 19
SV
4 
4 
2.313810366804012 2:0.19303482 417:0.70564525 
2.408680708928114 62:1.6044627 
4 2:0.28955223 
4 2:0.19303482 4568:1.0696418 
1.527009448441574 2:0.28955223 2439:1.6044627 
4 2:0.19303482 2620:1.0696418 
4 2:0.28955223 
4 
4 
1.07732054102559 2:0.28955223 33:1.6044627 
4 2:0.19303482 417:0.70564525 
1.413275703738715 2:0.28955223 179:1.6044627 
3.195003714695029 282:0.84024703 
4 2:0.28955223 
4 282:0.84024703 
4 
2.568067114389372 77:1.6044627 
4 
4 27:0.80223137 442:0.80223137 
4 2:0.19303482 
1.496832401977595 2:0.28955223 4:1.2603706 
-4 186:1.3040077 326:1.3040077 734:1.3040077 781:1.3040077 
-4 
-4 13:3.912023 
-4 13:7.824046 
-4 13:3.912023 5866:3.912023 
-4 
-4 
-4 13:3.912023 
-4 13:3.912023 
-4 13:3.912023 
-4 
-4 781:2.6080153 1476:2.6080153 
-4 13:3.912023 68:3.912023 
-4 13:3.912023 
-4 7:1.5648092 13:1.5648092 457:1.5648092 
-4 781:2.6080153 1476:2.6080153 
-4 7:0.97800575 13:0.97800575 44:0.97800575 457:0.97800575 1808:0.97800575 
-4 13:3.912023 
-4 13:3.912023 68:3.912023 
