svm_type c_svc
kernel_type rbf
gamma 0.000320513
nr_class 2
total_sv 22
rho 0.964174
label -1 1
nr_sv 11 11
SV
4 29:1 65:1 249:1 
4 65:1 
4 5:1 110:1 210:1 2468:1 2961:1 3120:1 
4 2:1 106:1 3005:1 
4 10:1 1531:1 1919:1 
4 56:1 88:1 1835:1 2913:1 
4 242:1 
4 1399:1 
4 282:1 1399:1 
4 6:1 
4 2886:1 
-4 13:1 2412:1 3076:1 
-4 26:1 785:1 
-4 361:1 547:1 686:1 817:1 843:1 1268:1 
-4 7:1 13:1 44:1 457:1 1808:1 
-4 361:1 547:1 686:1 1268:1 
-4 3:1 13:1 85:1 
-4 13:1 1094:1 
-4 133:1 159:1 
-4 1885:1 
-4 13:1 68:1 361:1 547:1 686:1 1268:1 
-4 13:1 213:1 
